digraph Tree {
node [shape=box] ;
0 [label="TotalWorkingYears <= 1.5\ngini = 0.27\nsamples = 4382\nvalue = [3677, 705]"] ;
1 [label="Age <= 33.5\ngini = 0.5\nsamples = 273\nvalue = [140, 133]"] ;
0 -> 1 [labeldistance=2.5, labelangle=45, headlabel="True"] ;
5 [label="MonthlyIncome <= 112610.0\ngini = 0.495\nsamples = 237\nvalue = [107, 130]"] ;
1 -> 5 ;
7 [label="MonthlyIncome <= 23140.0\ngini = 0.473\nsamples = 201\nvalue = [77, 124]"] ;
5 -> 7 ;
9 [label="gini = 0.245\nsamples = 21\nvalue = [18, 3]"] ;
7 -> 9 ;
10 [label="Age <= 23.5\ngini = 0.441\nsamples = 180\nvalue = [59, 121]"] ;
7 -> 10 ;
13 [label="gini = 0.272\nsamples = 74\nvalue = [12, 62]"] ;
10 -> 13 ;
14 [label="MonthlyIncome <= 32530.0\ngini = 0.494\nsamples = 106\nvalue = [47, 59]"] ;
10 -> 14 ;
15 [label="gini = 0.284\nsamples = 35\nvalue = [6, 29]"] ;
14 -> 15 ;
16 [label="gini = 0.488\nsamples = 71\nvalue = [41, 30]"] ;
14 -> 16 ;
8 [label="gini = 0.278\nsamples = 36\nvalue = [30, 6]"] ;
5 -> 8 ;
6 [label="gini = 0.153\nsamples = 36\nvalue = [33, 3]"] ;
1 -> 6 ;
2 [label="Age <= 33.5\ngini = 0.24\nsamples = 4109\nvalue = [3537, 572]"] ;
0 -> 2 [labeldistance=2.5, labelangle=-45, headlabel="False"] ;
3 [label="gini = 0.315\nsamples = 1473\nvalue = [1184, 289]"] ;
2 -> 3 ;
4 [label="TotalWorkingYears <= 39.0\ngini = 0.192\nsamples = 2636\nvalue = [2353, 283]"] ;
2 -> 4 ;
11 [label="MonthlyIncome <= 10300.0\ngini = 0.188\nsamples = 2630\nvalue = [2353, 277]"] ;
4 -> 11 ;
17 [label="gini = 0.0\nsamples = 3\nvalue = [0, 3]"] ;
11 -> 17 ;
18 [label="gini = 0.187\nsamples = 2627\nvalue = [2353, 274]"] ;
11 -> 18 ;
12 [label="gini = 0.0\nsamples = 6\nvalue = [0, 6]"] ;
4 -> 12 ;
}